Language model created by QuickLM on Sun Jan 24 16:30:24 EST 2016
Copyright (c) 1996-2010 Carnegie Mellon University and Alexander I. Rudnicky

The model is in standard ARPA format, designed by Doug Paul while he was at MITRE.

The code that was used to produce this language model is available in Open Source.
Please visit http://www.speech.cs.cmu.edu/tools/ for more information

The (fixed) discount mass is 0.5. The backoffs are computed using the ratio method.
This model based on a corpus of 19 sentences and 19 words

\data\
ngram 1=19
ngram 2=35
ngram 3=35

\1-grams:
-0.9466 </s> -0.3010
-0.9466 <s> -0.2218
-1.9243 DOWN -0.2489
-1.2253 GO -0.2744
-1.9243 HA -0.2430
-1.9243 HEE -0.2430
-1.9243 HELLO -0.2218
-1.9243 LEFT -0.2489
-1.2711 MARCY -0.2061
-2.2253 OFF -0.2958
-2.2253 ON -0.2958
-2.2253 POOP -0.2489
-1.9243 RIGHT -0.2489
-1.9243 SELECT -0.2489
-1.9243 SOURCE -0.2489
-1.9243 TO -0.2958
-1.9243 TURN -0.2958
-1.9243 TV -0.2489
-1.9243 UP -0.2489

\2-grams:
-0.8808 <s> GO 0.0000
-1.5798 <s> HA -0.1761
-1.5798 <s> HEE -0.1761
-1.2788 <s> HELLO 0.0000
-0.6767 <s> MARCY -0.0458
-1.5798 <s> POOP 0.0000
-1.5798 <s> SELECT 0.0000
-0.3010 DOWN </s> -0.3010
-1.0000 GO DOWN 0.0000
-1.0000 GO LEFT 0.0000
-1.0000 GO RIGHT 0.0000
-1.0000 GO TO 0.0000
-1.0000 GO UP 0.0000
-0.6021 HA </s> -0.3010
-0.6021 HA HA -0.1761
-0.6021 HEE </s> -0.3010
-0.6021 HEE HEE -0.1761
-0.6021 HELLO </s> -0.3010
-0.6021 HELLO MARCY -0.2762
-0.3010 LEFT </s> -0.3010
-1.2553 MARCY </s> -0.3010
-0.5563 MARCY GO 0.0000
-1.2553 MARCY SELECT 0.0000
-0.9542 MARCY TURN 0.0000
-0.3010 OFF TV 0.0000
-0.3010 ON TV 0.0000
-0.3010 POOP </s> -0.3010
-0.3010 RIGHT </s> -0.3010
-0.3010 SELECT </s> -0.3010
-0.3010 SOURCE </s> -0.3010
-0.3010 TO SOURCE 0.0000
-0.6021 TURN OFF 0.0000
-0.6021 TURN ON 0.0000
-0.3010 TV </s> -0.3010
-0.3010 UP </s> -0.3010

\3-grams:
-1.0000 <s> GO DOWN
-1.0000 <s> GO LEFT
-1.0000 <s> GO RIGHT
-1.0000 <s> GO TO
-1.0000 <s> GO UP
-0.3010 <s> HA HA
-0.3010 <s> HEE HEE
-0.6021 <s> HELLO </s>
-0.6021 <s> HELLO MARCY
-0.5051 <s> MARCY GO
-1.2041 <s> MARCY SELECT
-0.9031 <s> MARCY TURN
-0.3010 <s> POOP </s>
-0.3010 <s> SELECT </s>
-0.3010 GO DOWN </s>
-0.3010 GO LEFT </s>
-0.3010 GO RIGHT </s>
-0.3010 GO TO SOURCE
-0.3010 GO UP </s>
-0.3010 HA HA </s>
-0.3010 HEE HEE </s>
-0.3010 HELLO MARCY </s>
-1.0000 MARCY GO DOWN
-1.0000 MARCY GO LEFT
-1.0000 MARCY GO RIGHT
-1.0000 MARCY GO TO
-1.0000 MARCY GO UP
-0.3010 MARCY SELECT </s>
-0.6021 MARCY TURN OFF
-0.6021 MARCY TURN ON
-0.3010 OFF TV </s>
-0.3010 ON TV </s>
-0.3010 TO SOURCE </s>
-0.3010 TURN OFF TV
-0.3010 TURN ON TV

\end\
